%YAML:1.0
---
_120: !!opencv-object-detector-hog
   winSize: [ 48, 48 ]
   blockSize: [ 16, 16 ]
   blockStride: [ 8, 8 ]
   cellSize: [ 8, 8 ]
   nbins: 9
   derivAperture: 1
   winSigma: 4.
   histogramNormType: 0
   L2HysThreshold: 2.0000000000000001e-01
   gammaCorrection: 1
   nlevels: 64
   signedGradient: 0
   SVMDetector: [ 1.04507226e-02, 2.00074669e-02, 2.91463803e-03,
       -2.55264086e-03, -5.04280627e-03, -2.20159837e-03, 4.91900137e-03,
       8.82675312e-03, 6.74454449e-03, -1.22793042e-03, 6.20026235e-03,
       7.44156633e-03, -5.97613514e-04, -1.63144059e-03, -7.01442244e-04,
       -9.37171862e-05, 2.99871928e-04, -3.91681725e-03, -9.98883042e-04,
       1.31291207e-02, -5.07582910e-04, -1.09622981e-02, 1.89654506e-03,
       2.42724037e-03, 3.98426736e-03, 3.48816137e-03, -6.48282468e-04,
       1.46690430e-03, 3.87465319e-04, -1.76882779e-03, 2.76827626e-03,
       1.47213684e-02, 8.15113913e-03, 5.32947946e-03, 4.76780580e-03,
       4.93008352e-04, -3.98937240e-02, -1.81626622e-02, -2.99317334e-02,
       -4.88252053e-03, -4.94852848e-03, -3.16338241e-03,
       -5.35715977e-03, -3.46334348e-03, -7.65808625e-03,
       -2.36132778e-02, -1.97427459e-02, -1.79896522e-02,
       -4.03398601e-03, -5.87265566e-03, -5.92007488e-03,
       -7.17350654e-03, 1.97752891e-03, -1.38592282e-02, 2.05468573e-02,
       -2.01573707e-02, -2.06781663e-02, 1.33473314e-02, 2.97105759e-02,
       1.56547409e-02, 2.25004777e-02, 6.84001073e-02, 5.58550060e-02,
       1.04729878e-02, -2.34922729e-02, -1.17180618e-02, 7.03799864e-03,
       1.26355439e-02, 1.10753244e-02, 4.65614386e-02, 1.43459350e-01,
       1.06923275e-01, 4.44454234e-03, -1.03128785e-02, -7.51530798e-03,
       -8.59057531e-03, -8.68712272e-03, -5.81886433e-03,
       -6.21978613e-03, -1.23705940e-05, -2.20163446e-03,
       -2.27191648e-03, -1.58765744e-02, -1.07803075e-02,
       -1.11146308e-02, -1.43660204e-02, -7.03166937e-03,
       -1.00598997e-02, -9.53799393e-03, 7.01566134e-03, 2.47161668e-02,
       -4.18019518e-02, -4.61006500e-02, -1.30080860e-02,
       -7.24894740e-03, -5.33763366e-03, 2.51952037e-02, 1.38043121e-01,
       8.50054920e-02, -1.89820863e-02, -8.66855532e-02, -8.58163536e-02,
       -3.44124027e-02, -2.62015034e-02, -2.24061981e-02,
       -1.54812476e-02, 2.65489314e-02, 2.38242745e-02, -1.04027260e-02,
       -3.71090160e-03, -3.40642128e-03, -5.47147077e-03,
       -8.07607919e-03, -6.57621725e-03, -2.27411604e-03, 2.92803925e-02,
       2.34481804e-02, -5.18565392e-03, -1.11769652e-03, -3.41801997e-03,
       -6.48512645e-03, -8.82864278e-03, -9.53194499e-03, 1.21672610e-02,
       2.02594753e-02, -2.55362503e-03, -2.38663927e-02, -5.69967255e-02,
       -4.99561839e-02, -2.96526253e-02, -3.18799354e-02,
       -2.48746090e-02, -7.29414681e-03, 2.20369622e-02, 2.02085841e-02,
       -3.96001851e-03, -2.87039485e-03, -6.56551123e-03,
       -1.51309622e-02, -2.33747344e-02, -2.18233410e-02, 1.85470674e-02,
       1.71127915e-02, -1.22704264e-03, 1.48940855e-03, -1.23466330e-03,
       -1.13687967e-03, -2.41289008e-03, 2.83781672e-03, -5.69738587e-03,
       -6.08075457e-03, 7.72316521e-03, -7.95286521e-03, -2.26913276e-03,
       4.95213084e-03, 5.72253251e-03, 9.29260068e-03, 2.43590176e-02,
       9.13306046e-03, -1.15724774e-02, -7.58798467e-03, -7.28073996e-03,
       1.78375587e-04, -6.84349157e-04, -9.28000663e-04, -2.55280430e-03,
       -4.52480325e-03, -1.29561555e-02, 6.07163645e-03, 1.28676528e-02,
       -5.59610920e-03, 2.22014985e-03, 1.48577732e-03, 3.83363687e-03,
       7.66290538e-03, 1.26592824e-02, -6.83594169e-03, -8.98448925e-04,
       -1.30534805e-02, -2.82870780e-04, -9.66136518e-04,
       -1.37298414e-02, -3.18807038e-03, 7.76628917e-03, 4.99722641e-03,
       2.88549252e-03, 2.11030873e-03, 1.59069290e-03, 7.37323659e-04,
       -2.72270734e-03, 8.53365380e-03, 1.35517365e-03, 2.19236538e-02,
       2.23065335e-02, 1.22836437e-02, 8.92717950e-03, 1.40199997e-02,
       5.36660291e-03, -1.06928917e-03, -1.74616128e-02, -4.47706785e-03,
       1.17593044e-02, -2.33375374e-03, -5.76658733e-03, -1.43366255e-04,
       5.52275043e-04, 1.91020401e-04, -9.49450117e-03, -1.48667190e-02,
       3.39293445e-04, 1.53598096e-02, 7.83526059e-03, 1.66413619e-03,
       1.45796081e-03, 2.10960070e-03, -5.12481900e-03, -6.60380907e-03,
       -2.57094298e-02, -3.18237990e-02, 2.52207014e-04, 2.58333012e-02,
       1.66469123e-02, 2.64304075e-02, 1.01481579e-01, 6.54229298e-02,
       -1.95942037e-02, -5.19384630e-02, -4.50113900e-02,
       -1.56435072e-02, -2.98151141e-03, -1.37534235e-02, 1.65631287e-02,
       1.24606781e-01, 9.84329879e-02, -3.01752687e-02, -3.54684740e-02,
       -4.28080671e-02, -2.79945321e-02, 1.40657276e-03, 9.71162505e-03,
       1.96777862e-02, 3.64926159e-02, 1.79021817e-03, -2.35583652e-02,
       -6.76744953e-02, -6.32152557e-02, -4.16432917e-02,
       -1.29546979e-02, -2.35146247e-02, -2.48039830e-02, 4.61432002e-02,
       4.45646085e-02, 4.39688526e-02, -6.26903698e-02, -5.96422255e-02,
       -2.10680719e-02, -1.74002405e-02, -2.49881390e-02,
       -6.91604847e-03, 1.19834445e-01, 1.20409295e-01, 3.51286642e-02,
       -7.99272731e-02, -9.24140662e-02, -3.60630602e-02,
       -3.73207182e-02, -4.12028916e-02, -3.45993862e-02, 2.78452337e-02,
       1.03304073e-01, 4.19401415e-02, -6.25192001e-02, -6.23357333e-02,
       -2.45206077e-02, -2.08975673e-02, -3.23040634e-02,
       -4.55541201e-02, 4.85174134e-02, 5.73268794e-02, 6.48147166e-02,
       -7.03582019e-02, -7.28632137e-02, -4.17967141e-02,
       -4.96957898e-02, -5.82577065e-02, -8.34706575e-02,
       -2.88301911e-02, 6.62543923e-02, 4.66369577e-02, -2.83422358e-02,
       -5.17943241e-02, -2.78139245e-02, -4.52669375e-02,
       -4.51068096e-02, -1.27610005e-02, 2.28058137e-02, 7.99665377e-02,
       3.30678299e-02, 8.99695139e-03, 2.40559038e-03, -8.44714604e-03,
       -2.71635465e-02, -2.20040511e-02, 4.37716767e-02, 5.86797446e-02,
       1.61759462e-02, 9.88046005e-02, -1.64311361e-02, -2.48379353e-02,
       -1.47410734e-02, -5.85628785e-02, -6.05503060e-02,
       -7.45523572e-02, -6.50637746e-02, 8.30693170e-02, 4.68348935e-02,
       1.34212738e-02, 5.21076145e-03, -8.66646692e-03, -4.61048558e-02,
       -3.71699072e-02, -5.47111360e-03, -1.38687585e-02, 2.82128323e-02,
       1.07862020e-03, 1.30732695e-03, -6.51625451e-04, -2.53011170e-03,
       -1.19945472e-02, 2.46527838e-03, 1.25970356e-02, -1.33659015e-03,
       -4.81832167e-03, 1.35852781e-03, 1.14203373e-03, 1.47765619e-03,
       9.46770480e-04, 3.51441326e-03, 1.19728511e-02, 5.61383599e-03,
       -3.12588513e-02, -4.46955953e-03, 1.40500406e-03, 1.55848661e-03,
       -2.55056378e-03, -4.26338473e-03, -1.03286617e-02, 1.72812063e-02,
       1.59915667e-02, -6.59767771e-03, -1.52728101e-03, -1.47327920e-03,
       1.82518226e-04, -2.02357699e-03, 4.78975289e-03, 7.84509536e-03,
       1.45713761e-02, 4.13479144e-03, -2.44125724e-02, -8.17677658e-03,
       -1.27185998e-03, -1.37477582e-02, -1.36519391e-02, 4.25666524e-03,
       -2.17879727e-03, -9.65125021e-03, -7.11903849e-04,
       -2.64221511e-04, -8.29408586e-04, -9.97727364e-03,
       -1.01270135e-02, -3.86072812e-03, 1.57590304e-02, 1.70592051e-02,
       4.17654170e-03, 2.54528574e-03, -1.55000587e-03, -9.50768590e-03,
       -2.20453367e-04, -1.52723212e-03, -5.88833913e-03, 2.72116577e-03,
       -5.75290667e-03, -9.57896467e-04, 8.22199229e-03, -2.92100012e-03,
       -1.07766385e-03, -3.08388262e-03, -1.46097410e-03, 7.09325657e-04,
       8.55140761e-03, 1.32353976e-02, 1.96558330e-02, 1.05199283e-02,
       -1.77088616e-04, -2.59713666e-03, -5.00266850e-02,
       -3.53590064e-02, -4.35914323e-02, -3.07946596e-02,
       -5.14547294e-03, 2.38399804e-02, 4.99703325e-02, -5.28513314e-03,
       -8.19281191e-02, -5.25249392e-02, -2.83887554e-02,
       -3.16134803e-02, 8.98950174e-03, 3.91752012e-02, 3.79357636e-02,
       -1.00442711e-02, -2.37154644e-02, -5.34531884e-02,
       -8.62583704e-03, -4.01966646e-03, 9.88595560e-03, 2.29480024e-02,
       1.56658590e-02, 1.19978040e-02, 1.82286464e-02, 4.29468509e-03,
       -1.36833703e-02, 4.66439351e-02, 7.24676922e-02, 8.58259276e-02,
       1.11452624e-01, 1.09139569e-01, 9.24580395e-02, 8.94155800e-02,
       3.60750668e-02, 9.84595274e-04, 1.84611659e-02, -9.98928677e-03,
       -1.39173856e-02, 2.54288409e-02, 2.97972225e-02, 1.49162197e-02,
       -2.28133295e-02, 2.45203767e-02, 3.79168317e-02, 2.51895431e-02,
       -3.52643542e-02, -3.92712168e-02, -1.64809432e-02,
       -3.04574128e-02, -4.92784902e-02, -1.04325414e-01,
       -1.30178025e-02, 2.67562419e-02, 3.38438936e-02, 4.15808074e-02,
       7.66803548e-02, 1.02881372e-01, 7.74396509e-02, 3.84834036e-02,
       1.23941787e-02, 2.23173741e-02, 7.21889064e-02, 8.57995357e-03,
       -2.38082204e-02, -1.18438539e-03, 5.91986114e-03, -1.15193967e-02,
       -2.81043332e-02, -8.81794691e-02, -6.85551316e-02, 1.04532717e-02,
       5.39285205e-02, -1.29361479e-02, -2.52588894e-02, -3.06526888e-02,
       -7.38472119e-02, -7.20784217e-02, -9.35709327e-02,
       -3.50077637e-02, 6.31283522e-02, 3.37671153e-02, 2.58481642e-03,
       -7.83711113e-03, -1.86780766e-02, -5.30131571e-02,
       -4.63651195e-02, -1.95527077e-02, -1.74202267e-02, 4.68981676e-02,
       5.11094034e-02, 2.80224793e-02, 6.89923158e-03, -7.57118687e-03,
       -3.80176976e-02, -3.35093439e-02, -6.52898997e-02,
       -2.23831795e-02, 5.34217395e-02, 7.15789050e-02, 2.46108864e-02,
       1.66117344e-02, 9.92335100e-03, -9.09152906e-03, -1.08103175e-02,
       5.67800133e-04, 2.06218380e-02, 7.68929943e-02, 4.21132613e-03,
       -7.84050673e-04, -4.98251524e-04, 2.98978109e-03, -8.58036429e-03,
       -3.71301547e-03, -1.36911462e-03, -3.25140124e-03, 3.43949348e-03,
       -2.31268699e-03, -4.27762326e-03, -3.72014940e-03, 6.44066185e-03,
       5.86433336e-03, 8.16923194e-03, -2.80552427e-03, -1.06467484e-02,
       -5.96390478e-03, 5.82661433e-03, 2.68956850e-04, 1.34018101e-02,
       1.44817242e-02, -2.59641721e-03, -6.89281290e-03, -1.28514168e-03,
       8.63774971e-04, 5.12282597e-03, -1.29714361e-04, -5.67224156e-03,
       4.39004391e-04, 1.28460210e-02, 7.72578293e-04, -6.28193235e-03,
       -3.83122335e-03, -3.27779585e-03, -2.00474635e-03,
       -7.89454381e-04, -9.17781726e-04, -2.54939921e-04,
       -1.96399656e-03, -1.89776551e-02, 1.85525557e-03, 1.15171457e-02,
       -3.96812242e-03, -9.34462354e-04, -4.00182529e-04,
       -6.55807962e-04, 3.37062171e-04, 4.33323719e-03, 5.95457572e-03,
       1.27133159e-02, 1.48900859e-02, -5.18434565e-04, -1.71271712e-03,
       -4.76394407e-03, -1.89920270e-03, -2.56070693e-04,
       -2.86773080e-04, -1.35965981e-02, -9.06142377e-05, 1.35746773e-03,
       -1.90267824e-02, -2.35206261e-03, -1.80941715e-03,
       -3.26023693e-03, -4.88419179e-03, -1.97730551e-04,
       -1.81141449e-03, 1.05576832e-02, 9.88790300e-03, -9.56829917e-03,
       2.38844403e-03, 3.17190737e-02, 1.32844262e-02, 2.72322036e-02,
       4.81260531e-02, 2.76953280e-02, -9.75118310e-04, -2.31928322e-02,
       1.96122983e-03, 9.83026531e-03, 1.18853830e-01, 1.15009636e-01,
       1.04252562e-01, 1.07189961e-01, 7.03719333e-02, 3.03652007e-02,
       7.52418907e-03, -1.15316978e-03, 3.42069305e-02, 6.26822840e-03,
       -6.61556609e-03, -9.00420267e-03, -4.72848956e-03,
       -1.40039781e-02, -3.70219983e-02, -6.88496381e-02,
       -7.63065591e-02, -7.85840955e-03, 3.77496332e-02, 1.75748989e-02,
       -3.84970172e-03, -1.26605369e-02, -4.44062017e-02,
       -4.30521630e-02, -5.12254760e-02, -5.40851206e-02,
       -2.20688879e-02, 2.91458257e-02, 5.91831692e-02, 7.67843425e-02,
       7.52345845e-02, 3.43371630e-02, -4.47236141e-03, -3.12465206e-02,
       -2.87681855e-02, 7.39185931e-03, -3.24315834e-03, 5.05130133e-03,
       1.49378870e-02, 8.71630572e-03, -7.52821937e-03, -3.39494124e-02,
       -6.46852255e-02, -5.62547036e-02, -5.17851324e-04,
       -1.07564721e-02, -5.73675986e-03, 3.51821445e-03, 1.42108707e-03,
       -3.32108862e-03, -2.05797367e-02, -4.96411994e-02,
       -3.49760689e-02, -2.24239714e-02, -8.14391952e-03, 1.09395664e-02,
       1.35410391e-02, 8.05950537e-03, 2.54608374e-02, 4.55184520e-04,
       1.71036310e-02, 1.11064175e-02, -8.75671580e-03, 6.87318295e-03,
       8.44661146e-03, -4.80456091e-03, -2.23260000e-02, -4.60220352e-02,
       -4.80651855e-02, -3.88783813e-02, -2.05020458e-02, 1.26442648e-02,
       2.42376253e-02, 4.99269832e-03, -8.22368823e-03, -7.56454095e-03,
       -1.96222197e-02, -9.88515094e-03, 2.05509011e-02, 2.88392995e-02,
       2.55756956e-02, 4.42910125e-04, 4.52351430e-03, -5.80341875e-05,
       -1.10300211e-02, -1.23761818e-02, -1.28711676e-02, 3.63657400e-02,
       4.94568907e-02, 3.09140831e-02, 3.81209143e-02, 1.29314489e-03,
       -3.49290157e-03, -2.21662084e-03, 1.14803668e-02, 1.38580399e-02,
       5.70790209e-02, 4.12117317e-02, 2.54515540e-02, 1.97388255e-03,
       1.90585630e-03, 1.68214925e-02, 1.22744534e-02, -1.59491843e-03,
       -2.28377758e-03, 4.53339145e-03, 2.28022854e-03, 1.48041267e-03,
       8.11122125e-04, -2.91103288e-03, -2.19171564e-03, 7.74849020e-03,
       -7.22212018e-03, -7.23696081e-03, -1.08298543e-03,
       -1.03313709e-03, -1.32954132e-03, 6.00164849e-03, 9.58499406e-03,
       -2.51596590e-04, 4.78408951e-03, -7.20680342e-04, 1.19895872e-03,
       5.63854864e-03, 4.40634438e-04, -4.81906289e-04, 3.02355009e-04,
       -1.03940815e-02, -4.55606822e-03, -8.58407654e-03,
       -1.07534789e-03, 2.29792553e-03, -5.24337665e-05, -4.38525202e-03,
       -8.45220592e-03, -1.79727824e-04, -2.43619696e-04, 2.96315318e-03,
       1.34521711e-03, 1.88745768e-03, 8.56548455e-03, -3.80442734e-03,
       -7.59006059e-03, 7.77994702e-03, 4.79006500e-04, -1.82341773e-03,
       -1.47466001e-03, -2.76684761e-04, -5.62229892e-04, 1.17776077e-02,
       2.70280195e-03, 2.40700319e-03, 1.30168740e-02, 2.17754655e-02,
       6.27908204e-03, 3.62641737e-03, 7.11235916e-03, 4.34973370e-03,
       6.60543388e-04, -1.78656299e-02, -5.54181216e-03, 1.47678005e-02,
       5.76175749e-03, 1.71530701e-03, 8.41996982e-04, 5.60791697e-03,
       -1.62518409e-03, 1.16426486e-03, -4.20976011e-03, 7.29180826e-03,
       3.27048707e-03, 8.38361739e-04, -3.18020885e-03, -4.14723298e-03,
       -4.15384024e-03, -1.19018024e-02, -5.11956029e-03, 2.32546031e-03,
       1.12849707e-02, 1.13900928e-02, 5.60329854e-03, -5.15246065e-03,
       -5.83234988e-03, -8.12993851e-03, -1.44453999e-02,
       -1.31772067e-02, -4.52426029e-03, 1.86282061e-02, 7.19366781e-03,
       -2.55203666e-03, -1.05578976e-03, -3.65533051e-04, 8.90141018e-05,
       -7.49514438e-03, -3.71698104e-03, -1.27678374e-02, 6.28227275e-03,
       -6.96973456e-03, -2.09063772e-04, -2.30303244e-03,
       -9.68171807e-04, -3.01518315e-03, -8.64997692e-03,
       -1.02140112e-02, -9.61775705e-03, 4.88435850e-03, 6.59406278e-03,
       -1.63377845e-04, -1.09003726e-02, -3.15993838e-03,
       -2.08544522e-03, 2.57687498e-04, -8.31323769e-03, -1.65645443e-02,
       -9.24673863e-03, -9.06374305e-03, 4.10707062e-03, 9.68277175e-03,
       5.29331062e-03, 1.60617870e-03, 7.63135310e-03, 8.15095566e-03,
       3.78948674e-02, 4.36283350e-02, 1.44644277e-02, 5.06833708e-03,
       -3.34649044e-03, -6.74032199e-04, -2.26794160e-03,
       -7.34772207e-03, -6.90043764e-03, -5.26302401e-03,
       -5.02035627e-03, 1.54266891e-03, 1.26648485e-03, -3.51313432e-03,
       -2.45417556e-04, -4.84886207e-03, -1.15108918e-02,
       -7.62320962e-03, 1.22106646e-03, -4.37983871e-03, -8.26411042e-03,
       1.16696907e-02, 9.13629867e-03, 1.27548324e-02, 2.31269235e-03,
       3.66050331e-03, 6.49307016e-03, 4.84090708e-02, 5.26098423e-02,
       4.41387184e-02, 3.02247833e-02, -3.39396321e-03, -1.16553239e-03,
       -3.34750465e-03, 2.26359139e-03, 7.39934342e-03, 1.65397730e-02,
       8.91281106e-03, 1.08638927e-02, -7.07908859e-03, -1.17581915e-02,
       -2.18547531e-03, -2.98706884e-03, -9.13522020e-03,
       -6.76108291e-03, -1.32778648e-03, 3.55855969e-04, -3.56744975e-03,
       -2.48390082e-02, -1.20351380e-02, -1.91512778e-02,
       -1.10011743e-02, -1.41012706e-02, -4.75088554e-03,
       -3.75546445e-03, -5.14289597e-03, -8.63633584e-03, 1.46736782e-02,
       8.51642806e-03, 1.93477224e-03, 1.05266727e-03, -7.62777589e-03,
       3.63243860e-04, 2.49794568e-04, -1.39830844e-03, 1.43965008e-04,
       7.91585818e-03, -7.91290589e-03, -2.18494842e-03, -4.63762553e-03,
       1.52174477e-02, 1.12951323e-02, -1.28027154e-04, -3.56548582e-03,
       -2.14606943e-03, 1.79461460e-03, -5.56990132e-03, -3.27919726e-03,
       -1.01462367e-03, 6.65142376e-04, 1.93356676e-03, 6.45911670e-04,
       -1.22585078e-03, 1.02190429e-03, 1.03681199e-02, -6.24643685e-03,
       -1.90097410e-02, 9.12029482e-03, 2.27923561e-02, 2.25706045e-02,
       5.46976272e-03, 4.35006758e-03, 6.88264659e-03, -5.26146889e-01 ]
