%YAML:1.0
---
_80: !!opencv-object-detector-hog
   winSize: [ 48, 48 ]
   blockSize: [ 16, 16 ]
   blockStride: [ 8, 8 ]
   cellSize: [ 8, 8 ]
   nbins: 9
   derivAperture: 1
   winSigma: 4.
   histogramNormType: 0
   L2HysThreshold: 2.0000000000000001e-01
   gammaCorrection: 1
   nlevels: 64
   signedGradient: 0
   SVMDetector: [ 5.88910840e-03, 2.03749840e-03, -1.96250714e-02,
       -4.66778409e-03, 5.69870276e-03, 2.88039492e-03, 9.68643697e-04,
       -1.77664298e-03, 7.98789610e-04, 5.12131397e-03, 1.45832635e-03,
       -1.43811237e-02, -1.14832707e-02, -1.23411149e-03,
       -1.70760986e-03, 1.56794104e-03, 8.48086085e-04, 7.46122934e-03,
       9.32868011e-03, 2.39781546e-03, -4.21400368e-03, -1.00634963e-04,
       3.55528435e-03, -6.92162372e-04, 9.35204385e-04, 1.86080148e-03,
       3.85252154e-03, 6.49801828e-03, 1.12375822e-02, -2.06129183e-03,
       -2.40029208e-03, -4.69820015e-03, -7.41733192e-03,
       -2.25316593e-03, -2.19010049e-03, 1.54716265e-03, 4.38433257e-04,
       9.67529137e-04, 1.34463320e-02, -4.63534705e-03, -3.44026266e-05,
       3.79703031e-03, 9.19381250e-03, 6.08358579e-03, 8.13333225e-03,
       3.18274880e-03, 8.24953523e-03, 2.61299070e-02, 6.11867104e-03,
       1.08775226e-02, 1.68722402e-02, 1.45335989e-02, 8.30578338e-03,
       5.56973973e-03, -6.86934264e-03, 1.31189097e-02, 3.55070597e-03,
       -6.85321586e-03, -8.96679424e-03, -8.11247155e-03,
       -7.47433864e-03, -2.31821649e-02, -1.66894961e-02,
       -1.54592646e-02, 1.56195862e-02, 1.75344162e-02, -2.98544439e-03,
       -8.07120744e-03, -7.92691950e-03, -2.24852003e-02,
       -5.51779680e-02, -4.46495041e-02, -1.42347245e-02,
       -4.68078861e-03, 1.02545815e-02, 9.44693759e-03, 1.68034546e-02,
       1.19188093e-02, 6.16563298e-03, 7.16287782e-03, -2.27962695e-02,
       -2.67333090e-02, 5.59358858e-03, 3.94833414e-03, 1.24023193e-02,
       1.81957372e-02, 5.74096106e-03, 4.62936424e-03, 1.26309274e-03,
       -9.62837227e-03, -2.86746584e-02, 4.19766940e-02, 5.98957539e-02,
       7.47791585e-03, -4.66986094e-03, -8.06352776e-03, -2.74134260e-02,
       -5.93479201e-02, -5.59858643e-02, 2.22894717e-02, 8.80204141e-02,
       1.00482516e-01, 3.42235267e-02, 4.31225775e-03, -8.10486637e-03,
       -1.36921378e-02, -1.99692342e-02, -1.48641346e-02, 3.24673107e-04,
       4.90103965e-04, 4.25110757e-03, 9.22515523e-03, 8.78066197e-03,
       4.88598039e-03, 2.91155023e-03, -1.68436728e-02, -2.16954537e-02,
       5.22241136e-03, 2.78048636e-03, 1.18530644e-02, 1.60869602e-02,
       8.86780117e-03, 5.33988792e-03, -1.03530912e-02, -1.88888498e-02,
       -1.57159716e-02, 4.02601510e-02, 7.40231872e-02, 7.74722397e-02,
       4.31714840e-02, 2.08671652e-02, -1.42023328e-03, -9.18976218e-03,
       -1.78733021e-02, -1.18978815e-02, 1.11064073e-02, 6.49106922e-03,
       1.33723682e-02, 2.10207831e-02, 9.83345322e-03, 8.58484709e-04,
       -1.66118741e-02, -8.48961715e-03, 8.34273087e-05, 3.14086140e-03,
       5.43497549e-03, 8.86308867e-03, 1.40560688e-02, 4.70291730e-03,
       -7.99679430e-04, 2.44670711e-03, -1.32024335e-02, -1.88529535e-04,
       4.53857053e-03, 2.22259946e-03, 3.40536283e-03, 2.99094687e-03,
       -1.07081775e-02, -2.46519223e-03, 1.47200236e-02, 1.07744837e-03,
       5.46225952e-03, 1.85725663e-03, 2.91345362e-03, 6.56069769e-03,
       8.53258651e-03, 1.90946402e-03, -5.84887015e-03, -3.80641990e-03,
       -8.89981166e-03, 3.61214322e-03, 2.20852229e-03, 4.47056768e-03,
       8.08755588e-03, 4.94558713e-04, -7.59841409e-03, -1.30191678e-03,
       -3.74163128e-03, 1.20618555e-03, 5.62041590e-04, 3.31535749e-03,
       2.47655693e-03, -4.57250094e-03, -4.10257792e-03, -9.92814638e-03,
       -2.24342593e-03, 2.73335056e-04, 6.69059576e-04, 2.50098848e-04,
       7.52280513e-03, 5.81582496e-03, -5.91436261e-03, 9.36592871e-04,
       -5.28723747e-03, -6.84139971e-03, -2.70937709e-03,
       -6.52294699e-03, -1.86544587e-03, 2.58347951e-03, 1.12826554e-02,
       9.75032244e-03, -1.20424235e-03, -1.77757838e-03, 1.75031915e-03,
       1.19190337e-03, 5.24256320e-04, 1.65731460e-03, 9.44431964e-03,
       5.16530685e-03, -4.44322824e-03, 2.21608276e-03, 7.57318642e-03,
       -6.38038968e-04, 5.59425971e-04, 1.91211782e-03, 8.07528943e-03,
       2.73653921e-02, 9.97698214e-03, 1.00314124e-02, -4.67727520e-03,
       -7.07184570e-03, -6.70831464e-03, -7.29248486e-03,
       -3.21297161e-02, -1.44061418e-02, 2.37827376e-02, 1.43574942e-02,
       -8.75647925e-03, -1.16416374e-02, -1.31659936e-02,
       -2.11414732e-02, -4.57920432e-02, -4.42717038e-02,
       -2.75825132e-02, 5.42387404e-02, -9.34100151e-03, -2.64179483e-02,
       -2.86400020e-02, -7.03029102e-03, 2.84748920e-03, 2.07037549e-03,
       1.83243435e-02, 5.57830855e-02, 4.40906063e-02, 3.14721349e-03,
       -2.11781077e-02, -4.27083299e-02, -2.48623788e-02,
       -3.30774300e-02, 7.72303343e-03, 2.55681537e-02, 3.78246345e-02,
       -1.18745845e-02, 6.42430931e-02, 4.85525578e-02, 3.87484301e-03,
       -7.71239353e-03, -2.65217088e-02, -5.89079745e-02,
       -5.86346984e-02, -5.28335236e-02, 1.38386702e-02, 7.94027671e-02,
       8.05319399e-02, 1.10670868e-02, -1.36612365e-02, -3.25901173e-02,
       -5.01654558e-02, -2.91418228e-02, -4.56612483e-02,
       -7.67467823e-03, 3.20021883e-02, -8.35566688e-03, -2.57427339e-02,
       -2.20611431e-02, -4.56733331e-02, 2.94898963e-03, 2.87240800e-02,
       3.28667089e-02, -2.13421118e-02, 4.40009087e-02, -1.15057291e-03,
       -2.98060272e-02, -3.79069820e-02, -5.59874587e-02, 7.62460195e-03,
       6.82377517e-02, 2.27840226e-02, 3.22028436e-02, 8.12826380e-02,
       1.01748049e-01, 5.46838306e-02, 8.36166833e-03, -4.29877974e-02,
       -5.25113568e-02, -2.70829797e-02, -2.60014385e-02,
       -9.00155120e-03, 8.37502256e-03, 1.11564463e-02, 1.44994790e-02,
       -7.03030592e-03, -1.94315966e-02, -2.41781119e-03,
       -7.13629695e-03, -5.40092494e-03, -3.15561630e-02, 4.10564803e-02,
       1.01025682e-02, -1.69363935e-02, -5.49523868e-02, -5.03113158e-02,
       5.25172614e-03, 9.12996531e-02, 8.22957791e-03, -3.17757763e-02,
       -1.27087524e-02, -1.48714865e-02, -1.90167092e-02,
       -5.73976450e-02, -4.31607105e-02, -2.56780591e-02, 1.40195163e-02,
       -1.33459689e-02, -5.18780085e-04, -5.90838376e-04, 1.78952282e-03,
       -1.60041323e-03, -9.46302991e-03, -3.00459587e-03, 2.64606439e-04,
       5.10963658e-03, 5.87562611e-03, 5.59656275e-03, 5.57777938e-03,
       9.90291778e-03, -1.73874351e-03, -6.95668720e-03, -1.93352695e-03,
       -1.96614093e-03, 9.71730892e-03, 7.43210223e-03, -1.48656231e-03,
       -2.33880174e-03, -5.04423492e-03, -8.20868928e-03,
       -1.77570898e-02, -4.42677364e-03, -1.81846635e-03, 6.14349637e-03,
       1.12366234e-03, 5.70630981e-03, 2.14251177e-03, -3.42554064e-04,
       -8.46332870e-03, -5.76523039e-03, 3.86864389e-03, 1.57890865e-03,
       1.43138971e-02, 9.16999392e-03, 1.47235696e-03, 8.98315571e-03,
       1.35211842e-02, 2.27039307e-03, -4.85238945e-03, 3.40140657e-03,
       3.73928015e-05, 6.57298078e-04, 1.05019531e-03, -6.91372901e-04,
       -1.87615247e-03, -1.01511581e-02, -1.64074339e-02, 6.65320968e-03,
       -7.69181550e-03, -5.30565996e-03, -3.65016866e-04, 4.42726072e-03,
       1.14771700e-03, 7.15616450e-04, 4.49716719e-03, -6.34603994e-03,
       -2.23791831e-05, 6.32234477e-03, 5.02964156e-03, -1.99771734e-04,
       1.53710775e-03, -6.10523904e-03, -5.40497573e-03, -5.23613300e-03,
       -8.30920693e-03, 6.11901330e-03, 1.01560634e-02, -4.89957305e-03,
       -4.74623404e-03, -4.08335775e-03, 9.61945485e-03, -2.78679486e-02,
       -4.02290709e-02, -4.54093851e-02, -2.57787555e-02,
       -1.25067476e-02, -1.55818751e-02, 4.17764373e-02, 1.02507077e-01,
       2.27867719e-02, -4.62239757e-02, -5.90615422e-02, -7.20213130e-02,
       -5.03463633e-02, -6.13581240e-02, 2.45022215e-02, 9.86764356e-02,
       1.00497358e-01, -1.53548988e-02, -1.32106766e-02, -1.40229296e-02,
       -1.85907651e-02, -1.54659301e-02, -1.57798361e-02,
       -2.23418698e-02, -1.25242267e-02, -2.92854174e-03,
       -3.71998064e-02, -4.80701886e-02, -5.19518852e-02,
       -5.49318232e-02, -5.62093183e-02, -5.00967465e-02,
       -4.44211327e-02, 2.18292838e-03, 4.37054364e-03, -4.30506058e-02,
       -3.61482240e-02, -5.01960292e-02, -4.44403030e-02,
       -3.48666236e-02, -5.02085760e-02, 1.49986902e-02, 6.39557466e-02,
       2.60324180e-02, -1.72162205e-02, -2.08003521e-02, -4.00127843e-02,
       -2.79959105e-02, -3.19351889e-02, -4.29734848e-02, 7.18557537e-02,
       8.60393196e-02, 4.37450111e-02, -5.31574823e-02, -5.65905422e-02,
       -5.01039922e-02, -5.26368804e-02, -5.00223711e-02,
       -3.19645666e-02, -1.64204591e-03, 2.58785635e-02, -3.84167880e-02,
       -1.55447396e-02, -3.84884737e-02, -2.43186075e-02,
       -2.03234386e-02, -2.94801500e-02, -1.39858155e-02, 4.64543253e-02,
       7.26976693e-02, -5.55804186e-03, -6.22567371e-04, -1.30014168e-02,
       -1.83695033e-02, -1.51353134e-02, -2.84784809e-02,
       -1.50335981e-02, 5.66119589e-02, 8.11950415e-02, 1.91283487e-02,
       -3.24253812e-02, -2.78247073e-02, -2.65143700e-02,
       -2.71392576e-02, -3.84968743e-02, -2.65963394e-02, 3.20045557e-03,
       2.78707556e-02, -2.67119091e-02, 1.41230617e-02, -1.65819377e-02,
       -7.30056828e-03, -1.18273881e-03, 7.19143893e-04, 8.50775372e-03,
       4.07326370e-02, 5.45076765e-02, 1.90768801e-02, -1.33616440e-02,
       -1.48339411e-02, -1.35366498e-02, -3.83514189e-03, 1.99056766e-03,
       3.40764248e-03, -4.84610582e-03, -3.88588593e-03, -2.46219337e-02,
       -3.79230757e-03, -4.22251038e-03, -8.17591045e-03,
       -1.07024405e-02, -5.01358230e-03, 1.19512843e-03, -1.41424546e-03,
       2.45251087e-03, -1.90587272e-03, 2.41945940e-03, -9.67081432e-05,
       -6.26910524e-03, -5.94569696e-03, -2.24996498e-03, 1.13584809e-02,
       1.91651995e-03, 9.39747505e-03, 5.63977845e-03, -4.49861493e-03,
       -8.60967766e-03, -1.09675797e-02, 1.16293412e-03, 3.66019248e-03,
       2.49649072e-03, -8.50725628e-04, -2.05924222e-03, -3.00429715e-03,
       1.39896898e-03, -5.39610442e-03, -4.52948548e-03, 5.33082988e-03,
       7.10403780e-03, 3.85505054e-03, 2.47108471e-03, 2.37447652e-03,
       3.90428794e-03, 2.14315180e-04, -1.74982721e-04, -4.19981225e-04,
       1.77608093e-03, 6.42895838e-03, 4.32609580e-03, 5.35147404e-03,
       -3.20140272e-03, 2.54078739e-04, -3.03035602e-03, -2.60864664e-03,
       -3.21604847e-03, -3.99821484e-03, -2.51893816e-03, 9.40702111e-03,
       6.95068343e-03, -3.73327709e-03, -3.16924788e-03, 8.06473428e-04,
       -4.59584524e-04, 2.57765214e-06, 2.68712081e-03, 3.58076021e-03,
       3.93571565e-03, 1.85338629e-03, -9.03540850e-03, -1.44547969e-03,
       -7.69801321e-04, 4.25371953e-04, -5.06970740e-04, -8.27434589e-04,
       -3.93414591e-03, 1.47335860e-03, -5.19354595e-03, -5.06960368e-03,
       -3.52806016e-03, -1.93231795e-02, -1.53350439e-02,
       -2.05143802e-02, -2.31297873e-02, -1.35151427e-02,
       -4.09183186e-03, 1.74367130e-02, -4.18195780e-03, -8.02073628e-03,
       -5.26030585e-02, -5.34370504e-02, -5.34972213e-02,
       -5.13720289e-02, -3.98735777e-02, -3.08276415e-02,
       -2.32872237e-02, -7.19475653e-03, -1.72850154e-02,
       -7.57152820e-03, -2.35624681e-03, -4.08894569e-03,
       -7.14166556e-03, -3.95439053e-03, 1.39926141e-02, 4.81702127e-02,
       5.45968637e-02, 4.44037956e-04, -2.60472316e-02, -1.61845908e-02,
       -9.09399055e-03, -9.84729035e-04, 2.83170715e-02, 2.11188812e-02,
       2.80042272e-02, 2.92091016e-02, -9.84614133e-04, -2.17741318e-02,
       -3.37198265e-02, -4.13301922e-02, -3.80969048e-02,
       -2.84874663e-02, -1.60829574e-02, -1.59903113e-02,
       -7.63028441e-03, -1.85647923e-02, 2.74015334e-03, -1.29616763e-02,
       -1.95823722e-02, -1.76528804e-02, -2.33796313e-02,
       -5.60461869e-03, 2.16978788e-02, 3.30779003e-03, -7.90148694e-03,
       9.15673561e-03, 1.28686279e-02, -1.21751917e-03, 1.24166347e-03,
       1.54334586e-02, 2.09338386e-02, 4.06962968e-02, 9.94744524e-03,
       -2.17468408e-03, 8.09585676e-03, 1.46969697e-02, 1.73459128e-02,
       7.17554148e-03, 1.39030302e-02, 3.37233953e-02, 2.16516405e-02,
       1.82114877e-02, 1.09724067e-02, -1.04969004e-02, -3.16078030e-02,
       -1.52078317e-02, -7.62027409e-03, -1.62790138e-02, 5.28928707e-04,
       1.82825308e-02, 1.32129400e-03, -3.41065973e-03, -8.64747353e-03,
       -1.48718236e-02, -5.13766007e-03, 2.80324137e-03, -1.20499982e-02,
       -7.71877076e-03, -1.49332117e-02, -1.25932321e-02,
       -8.26073810e-03, 5.95368259e-03, 4.57105087e-03, 1.56825017e-02,
       9.84986126e-03, 2.18422376e-02, 3.96179743e-02, 2.60502975e-02,
       1.33680394e-02, 4.08866303e-03, -1.49883572e-02, 3.49804363e-03,
       5.57374815e-03, 4.95716371e-03, -4.99787601e-03, -1.08355295e-03,
       -1.32150101e-02, -1.37396660e-02, -1.13394568e-02,
       -2.34276941e-03, -9.97572951e-03, 7.69192865e-03, -2.97883176e-03,
       -1.58507226e-03, 2.52909012e-05, -3.31568928e-03, -2.18586810e-03,
       -1.20852084e-03, 2.77729519e-03, -7.72440480e-03, 9.12133139e-03,
       6.42925408e-03, 6.00706413e-03, 6.62286533e-03, 4.98018460e-04,
       3.98790650e-03, 6.22104295e-03, -2.53645331e-03, -1.36070931e-02,
       -9.98548931e-04, 8.81721062e-05, -5.20602567e-03, -2.97949207e-03,
       -3.25863063e-03, -6.68628549e-04, 5.14252868e-04, 5.47283934e-03,
       -1.76904462e-02, -3.90858506e-04, 1.45217488e-02, -1.68653065e-03,
       -3.23682046e-03, 7.36668822e-04, 7.04176677e-03, 1.11294240e-02,
       5.49663091e-03, -2.02063099e-03, -3.52422218e-03, -1.15883991e-03,
       -2.14138674e-03, 1.05747990e-02, 5.22690406e-03, -1.36275031e-02,
       -1.82793592e-03, 2.00022222e-03, 2.68142263e-04, 5.97696635e-04,
       5.10095910e-04, 5.40996552e-04, -7.05401762e-04, 8.12995248e-04,
       1.58187482e-04, -6.27532275e-03, -4.53434885e-03, -4.65059187e-03,
       -8.98520742e-03, -9.04464442e-03, -1.12874876e-03, 9.21134278e-03,
       1.82105880e-02, -4.37931577e-03, -1.19896082e-03, -1.33539419e-04,
       -1.38261169e-03, -3.59490816e-03, -1.06337317e-03, 7.68830394e-03,
       7.17799412e-03, 3.27025354e-03, -3.08070099e-03, -2.44335434e-03,
       -1.96756981e-03, -7.26752158e-04, -1.07801039e-04,
       -1.13079266e-03, 1.04385057e-04, -2.36091917e-04, 4.13159095e-03,
       -3.38186874e-05, -6.34489814e-03, -4.95944545e-03,
       -3.04697524e-03, -3.85765132e-04, -8.00874957e-04, 1.11663830e-03,
       2.84376391e-03, 3.87377990e-03, 5.06208977e-03, 1.34162577e-02,
       3.94594856e-03, 1.12247968e-03, 1.19471384e-04, 1.36083923e-03,
       6.21744012e-03, 2.04594340e-03, 2.95827165e-03, -5.71131764e-04,
       -5.76124201e-03, 1.33080431e-03, 4.06003033e-04, 1.94686756e-03,
       1.85890414e-03, 4.07496467e-03, 7.77124544e-04, -1.95946940e-03,
       2.55070906e-03, 1.55478728e-03, 2.05078116e-03, 1.78423023e-03,
       1.09351811e-03, 7.24616038e-05, 3.35477805e-03, 9.50247049e-03,
       3.16549763e-02, 5.93822729e-03, 1.05590159e-02, -2.25653453e-03,
       1.27574503e-02, 7.45952921e-03, 1.69174955e-03, 7.08185788e-03,
       1.16095068e-02, 3.66110057e-02, 8.97274073e-03, 1.23634590e-02,
       -8.42220243e-03, -5.53484540e-03, -1.09158386e-03,
       -9.10748029e-04, 4.05649102e-04, -1.34634739e-03, -4.27088374e-03,
       -1.57055762e-02, -3.16236797e-03, -6.12352323e-03,
       -8.61927494e-03, -4.22451599e-03, -2.44726031e-03, 7.98546316e-05,
       -3.36298859e-03, -6.37189578e-03, -9.65849310e-03, 5.97068050e-04,
       7.90533796e-03, 4.79455804e-03, 5.83460322e-03, 2.36613676e-03,
       7.79937906e-03, 8.78035091e-03, 1.46105059e-03, -8.96058790e-03,
       4.40097763e-04, -7.96005968e-03, 3.50989564e-03, -6.48883218e-03,
       5.84127207e-04, 4.71290114e-04, -6.08672854e-04, -5.21415938e-03,
       -3.91121255e-03, -3.74295493e-03, 5.82938921e-03, 6.60737697e-03,
       -4.80334694e-03, -3.07875266e-03, -1.36174355e-03,
       -2.95510702e-03, -2.91138375e-03, -1.52863271e-03,
       -2.07970245e-03, 1.68985547e-03, 4.27851127e-03, -1.99144543e-03,
       3.92148877e-03, 7.07177958e-03, 1.23594378e-04, -2.13951943e-03,
       6.74903102e-04, 3.79888737e-03, -4.23202943e-03, -7.24233408e-03,
       -2.54512439e-03, 6.14819722e-03, 9.16291727e-04, -1.97980157e-03,
       -1.08621491e-03, 2.18349765e-03, 3.23498296e-03, -9.01142950e-04,
       -1.59818549e-02, 1.14491966e-03, 2.54252478e-02, -1.10558979e-02,
       -1.08351680e-02, -1.96809578e-03, 4.89706127e-03, 8.23840406e-03,
       -2.05852441e-03, -1.49870722e-03, -6.85763138e-04, 7.16678100e-03,
       5.02465013e-03, -2.37732427e-03, -2.50015827e-03, 5.52247046e-04,
       2.86429352e-03, -2.58072442e-03, -2.27406854e-03, 1.56936571e-02,
       4.09365771e-03, -1.14854779e-02, -1.67597923e-02, -2.90940492e-03,
       -1.86696753e-03, 2.20635021e-03, -6.92379534e-01 ]
