%YAML:1.0
---
stop: !!opencv-object-detector-hog
   winSize: [ 48, 48 ]
   blockSize: [ 16, 16 ]
   blockStride: [ 8, 8 ]
   cellSize: [ 8, 8 ]
   nbins: 9
   derivAperture: 1
   winSigma: 4.
   histogramNormType: 0
   L2HysThreshold: 2.0000000000000001e-01
   gammaCorrection: 1
   nlevels: 64
   signedGradient: 0
   SVMDetector: [ 4.49383957e-03, 3.45462956e-03, 1.30020622e-02,
       -8.53246194e-04, -3.50309326e-03, -3.75065953e-03,
       -2.01663328e-03, -1.96130178e-03, 1.04841171e-03, -9.33394395e-03,
       3.65018100e-03, 1.65255051e-02, -2.35439138e-03, -5.07043814e-03,
       -9.73354094e-03, -8.73023272e-03, -7.90902320e-03,
       -7.78638665e-03, -7.91313476e-04, 2.26121172e-02, 1.12284822e-02,
       -3.37893218e-02, -6.55249646e-03, -3.11052892e-03,
       -2.83859577e-03, -2.73143733e-03, -2.39637983e-03,
       -1.22611355e-02, -2.55975854e-02, 9.10928939e-03, -1.95036717e-02,
       -4.95635020e-03, -4.89985151e-03, -3.48307914e-03,
       -4.80343495e-03, -5.68753527e-03, 2.57245116e-02, 2.56893747e-02,
       2.88679823e-02, 1.34075666e-03, 2.76707811e-03, -5.84554300e-03,
       -7.54906936e-03, -4.92532318e-03, 1.10785561e-02, 1.57361496e-02,
       -2.68702284e-02, 8.87730718e-03, 7.41666043e-03, 1.08055873e-02,
       5.52190375e-03, 5.08087578e-05, 3.95093532e-03, 5.03891297e-02,
       -1.48142595e-02, -3.43488418e-02, 5.56445681e-03, -1.11698471e-04,
       1.88007578e-03, -1.58478715e-03, -2.28634151e-03, -5.08050062e-03,
       -7.38853263e-03, -4.34413813e-02, -5.72259687e-02,
       -2.04276722e-02, 5.94108133e-03, 1.23469299e-02, 7.42118014e-03,
       -6.14890410e-03, -1.36671020e-02, -2.44791359e-02,
       -1.06725460e-02, -1.89224947e-02, 1.24065047e-02, 1.40163023e-02,
       1.16013298e-02, 1.36433812e-02, 7.33344536e-03, 4.33590077e-03,
       -7.07786111e-03, -8.76667385e-04, 3.84491570e-02, 1.69261210e-02,
       9.09479614e-03, 1.95992272e-02, 3.37027125e-02, 3.77060212e-02,
       -7.04061659e-03, -1.30702406e-02, -5.29635884e-02,
       -2.74309423e-02, -1.26647437e-03, 1.34904627e-02, 3.00361644e-02,
       1.96944736e-02, -1.01736491e-03, -7.56724039e-03, -4.08378541e-02,
       -3.40010710e-02, -2.87230127e-03, -4.44819173e-03, 1.64461397e-02,
       7.06346780e-02, 6.14006110e-02, 3.15261409e-02, -9.48581938e-03,
       -4.84231226e-02, 2.17901357e-02, 4.68161190e-03, -3.85277113e-03,
       -1.28640595e-03, 2.07275003e-02, 3.34490910e-02, 4.25411277e-02,
       -2.60817464e-02, -2.82907765e-02, -1.99065544e-03,
       -8.29439983e-03, -8.18884652e-03, -6.65188255e-03, 1.21307252e-02,
       1.99248083e-02, 1.60137787e-02, -1.66183582e-03, -2.97277067e-02,
       -2.57344767e-02, -1.46461409e-02, -9.58224759e-03, 8.57349392e-03,
       7.34234154e-02, 5.56937791e-02, 2.77828425e-03, -5.53213656e-02,
       -5.70354052e-02, -8.80420953e-03, -5.13239950e-03,
       -2.28728773e-03, 8.80031660e-03, 6.83560446e-02, 2.76821721e-02,
       -1.35142580e-02, -4.00999002e-02, -3.28307152e-02,
       -7.73106189e-03, -6.29597763e-03, -7.26746442e-03,
       -1.24898963e-02, -1.00251175e-02, -6.96834829e-03, 1.77304335e-02,
       9.06834193e-03, -1.70637555e-02, -1.04815597e-02, -5.23726316e-03,
       -5.63793443e-03, -9.73604526e-03, -1.86234445e-03,
       -1.48532894e-02, 8.68298393e-03, 1.51564851e-02, -1.05421459e-02,
       -5.68318181e-03, -3.76293506e-03, -6.62327278e-03,
       -5.89822000e-03, 1.27711461e-03, -2.31287219e-02, -1.18895830e-03,
       -7.05817714e-03, -1.29960738e-02, -1.23218531e-02,
       -8.12569354e-03, -9.85486247e-03, -1.09780524e-02,
       -5.39707672e-03, -3.90546955e-02, 1.68059412e-02, 3.39030512e-02,
       -1.20279603e-02, 8.60166387e-04, 5.90105690e-02, 2.63863560e-02,
       -2.42270716e-02, 1.86809711e-02, 5.99295786e-03, -6.64782478e-04,
       2.99796695e-04, 1.00665330e-03, -3.52724944e-03, -3.39933694e-03,
       7.26372004e-03, -4.72731888e-02, -3.71725368e-03, 4.11878631e-04,
       1.69109751e-03, 1.40559999e-03, 7.83270109e-04, -5.93161851e-04,
       1.09716654e-02, 5.43562556e-03, -3.55619937e-02, 2.41078716e-02,
       2.70576868e-02, 1.40675157e-03, 1.21149840e-03, 1.19802146e-03,
       -3.37600987e-03, -5.65454550e-03, -3.75644341e-02,
       -5.94647415e-02, -2.51710527e-02, -8.36570689e-04, 3.44699505e-03,
       2.09632982e-03, 2.02172305e-04, 3.74614436e-04, -1.28925117e-02,
       -1.01720933e-02, -1.06203754e-03, 9.43193957e-03, 2.84855161e-03,
       3.07819410e-03, -3.12893069e-04, -2.22826638e-05, -2.62144003e-02,
       -2.54777018e-02, -1.42777059e-02, -4.65676794e-03, 7.89256208e-03,
       -1.67969614e-02, -2.99980585e-02, -2.00241935e-02,
       -2.54737400e-02, 3.20607494e-03, -1.03881257e-03, 3.94441711e-04,
       1.45861425e-03, 1.33171044e-02, 5.53073175e-03, 2.09322223e-03,
       -9.87511885e-05, 5.10107540e-03, 1.85220018e-02, 2.84252502e-02,
       3.75696085e-02, 1.92522816e-02, 1.47047434e-02, -1.55323930e-02,
       -1.99537110e-02, 7.83851091e-03, 2.88877189e-02, -3.43304574e-02,
       -1.49074784e-02, -4.57181316e-03, 3.63807729e-03, 2.78929342e-02,
       -1.34932632e-02, -3.35697867e-02, -2.40248982e-02,
       -3.79662514e-02, -3.45169641e-02, -1.32743055e-02,
       -4.75414935e-03, 2.04450432e-02, 7.63412416e-02, 3.74932289e-02,
       -1.85101833e-02, -1.37227280e-02, -3.37285660e-02,
       -2.55052559e-02, 2.01709457e-02, 4.64703664e-02, 9.44376178e-03,
       5.09045459e-03, -3.19471098e-02, -4.46377844e-02, -2.89240647e-02,
       -3.04476861e-02, -2.31425520e-02, 3.01012993e-02, 5.00844270e-02,
       4.92064655e-02, 6.07022420e-02, -3.22156865e-03, -3.82094681e-02,
       -2.81229783e-02, -3.27023268e-02, -4.54913564e-02,
       -2.90357713e-02, -2.18319856e-02, 7.79915741e-03, 7.91494101e-02,
       2.34336220e-02, -4.04597148e-02, -4.07307036e-02, -4.45943289e-02,
       -1.00937793e-02, -5.18673752e-03, -3.35528795e-03, 1.40255857e-02,
       8.13880116e-02, -5.55640378e-04, -3.74430604e-02, -3.00320368e-02,
       -1.87024511e-02, -4.47784364e-02, -1.28366780e-02,
       -2.04393663e-03, 1.69999283e-02, 5.79190440e-02, 4.00314666e-03,
       -4.64210771e-02, -3.88460979e-02, -4.62650992e-02,
       -1.65130422e-02, -9.62145161e-03, -9.73462965e-03, 1.01669915e-02,
       5.37838191e-02, -1.02123059e-02, -4.14875038e-02, -1.98132247e-02,
       -1.74112301e-02, 1.24172975e-05, 2.52222671e-04, 5.07754303e-05,
       5.70152188e-03, 2.81169377e-02, -3.49639580e-02, -2.03458723e-02,
       5.87097276e-03, -6.16350165e-03, -5.36704110e-03, -6.37126667e-03,
       -6.46891724e-03, 3.27869086e-03, 3.03801131e-02, -8.08923319e-03,
       8.39593261e-03, 4.84369770e-02, -3.88652063e-03, 1.11427356e-03,
       1.61069771e-03, -2.69503216e-04, 5.64398430e-03, 1.56213893e-02,
       -3.77056673e-02, -2.96492651e-02, -7.92361796e-03,
       -1.70674257e-03, -3.03848018e-03, -2.48522265e-03,
       -5.15219290e-03, 6.21711789e-03, 1.94009878e-02, -1.50194066e-02,
       -1.65541526e-02, 1.83876057e-03, -3.17947217e-03, 2.99756089e-03,
       4.20918083e-03, -4.16411040e-03, -3.75482403e-02, 4.17564698e-02,
       3.57708931e-02, -1.99587946e-03, 2.23186566e-03, 3.90771963e-03,
       -2.20859074e-03, -2.83904071e-03, -1.25551354e-02,
       -3.93411219e-02, -3.49231139e-02, -6.27086218e-03, 2.73019844e-03,
       4.90866508e-03, 1.91659469e-03, 4.77574300e-03, 2.72125588e-03,
       -3.51778488e-03, 3.75003845e-04, 4.22081202e-02, -1.28014502e-03,
       -1.13105588e-02, 2.54355883e-03, 4.72745579e-03, 1.18329823e-02,
       9.95964743e-03, 7.07824202e-03, -4.22236649e-03, -2.57729962e-02,
       -4.53138091e-02, -1.20364856e-02, -8.62215355e-04, 8.68235342e-03,
       -3.13965268e-02, -2.16087233e-02, -1.46149890e-02,
       -1.26252621e-02, -3.97215690e-03, 1.78521278e-03, 1.17967674e-03,
       -1.57224201e-03, -1.34484926e-02, -1.74373537e-02, 5.74183511e-03,
       1.80886146e-02, 5.71719324e-03, 1.84571094e-04, -1.79303531e-02,
       -2.90728919e-02, -6.32599927e-03, -1.12119969e-02, 5.19582862e-03,
       9.63949040e-03, 1.37638217e-02, 1.27796447e-02, 1.33619076e-02,
       9.45696048e-03, 4.98701935e-04, 4.32345551e-03, 5.81163773e-03,
       3.09399422e-02, 2.97939498e-02, 4.01280038e-02, 2.68545263e-02,
       1.82210673e-02, 3.15939821e-02, 4.40895669e-02, 4.23590504e-02,
       4.16784585e-02, -1.32543975e-02, 1.79061163e-02, 4.09200750e-02,
       1.37144504e-02, 4.16911702e-04, -1.83667466e-02, -2.27133669e-02,
       -9.35814902e-03, -1.33511405e-02, -2.18310747e-02, 1.85245015e-02,
       4.07984108e-02, 3.03637423e-02, 2.84491032e-02, -1.99856199e-02,
       -2.15189178e-02, -1.89192165e-02, -2.51550302e-02,
       -3.39861400e-03, 2.17203260e-03, 2.19905637e-02, 8.73651076e-03,
       -1.48634543e-03, 1.07745379e-02, 2.00971477e-02, 2.72575766e-02,
       1.86110083e-02, -2.86361277e-02, -2.39076931e-02, 2.80835177e-03,
       1.47649525e-02, 3.14194448e-02, 1.62518211e-02, -1.46688586e-02,
       -8.81277025e-03, -1.43444827e-02, -4.89759371e-02,
       -2.24045962e-02, -5.88431908e-03, 1.54812317e-02, 5.82263991e-02,
       -1.41097326e-02, -3.58155109e-02, -3.49734761e-02,
       -5.12495041e-02, -2.67636105e-02, -1.99970789e-02,
       -1.85469836e-02, 5.46868099e-03, 5.57362884e-02, -1.18779298e-03,
       -1.88273098e-02, -1.44253401e-02, -1.94334369e-02,
       -5.68857454e-02, -3.40155661e-02, -1.61274690e-02, 1.56044886e-02,
       7.32037425e-02, 2.39388123e-02, -4.04549390e-02, -4.62334566e-02,
       -5.06500043e-02, -2.48406231e-02, -1.71279572e-02,
       -1.50850201e-02, 8.03596433e-03, 8.21095258e-02, 3.83392014e-02,
       -8.66091996e-03, -1.29170911e-02, -1.59630124e-02, 1.90547539e-03,
       1.41861429e-03, -1.67638308e-03, -9.84494807e-04, 2.11033206e-02,
       -1.52346874e-02, -1.20381648e-02, -4.58794367e-03, 1.07867527e-03,
       3.16255493e-04, 2.80082691e-03, -2.54114671e-03, -1.13486480e-02,
       2.31257584e-02, -2.06991006e-02, -1.22271469e-02, -2.65205977e-03,
       -2.12898338e-03, 1.35451171e-03, 9.20758408e-04, -3.83120216e-03,
       -3.20426449e-02, 3.10905222e-02, 1.60879735e-02, -5.57765772e-04,
       2.00499594e-03, 1.75897905e-03, 4.64072538e-04, 1.69432182e-02,
       9.31153633e-03, -3.56430151e-02, 1.85367279e-02, 7.79085793e-03,
       -6.55227061e-03, -2.31305650e-03, -3.08858627e-03, 2.49442033e-04,
       2.57349835e-04, -5.94196259e-04, 4.56829614e-04, 2.61890776e-02,
       -2.97538564e-02, -1.70785338e-02, 1.20815178e-02, -3.31686257e-04,
       8.50481819e-03, 8.44765827e-03, 1.00010587e-02, 4.99950349e-03,
       -1.15506127e-02, -5.70803769e-02, -4.83201928e-02,
       -6.51796767e-03, 1.52427889e-03, -8.32126534e-06, 7.29016203e-04,
       -2.28474353e-04, 1.66200812e-03, 2.28454061e-02, -2.60263514e-02,
       1.20577142e-02, 5.31347729e-02, -2.95497099e-04, 6.16501039e-03,
       1.16171874e-02, 1.97220221e-02, 2.22292636e-02, 3.16831991e-02,
       -3.47399674e-02, 1.34116109e-03, 6.53177081e-03, -7.30337517e-04,
       1.58718713e-02, 1.67919397e-02, 1.69700887e-02, 1.01090632e-02,
       4.35594749e-03, -8.46387073e-03, -2.91338153e-02, -1.18727107e-02,
       4.18865494e-03, 2.18089968e-02, 1.98713467e-02, 1.39620239e-02,
       -7.52847875e-04, -2.36198753e-02, -4.19979077e-03, 2.97029130e-03,
       1.86965503e-02, 2.35743374e-02, 2.00027693e-02, 2.75582150e-02,
       4.18836400e-02, 4.73625138e-02, 5.20530492e-02, 9.46966466e-03,
       -6.18010312e-02, -6.79404736e-02, -8.26006476e-03, 3.28818150e-02,
       4.43318672e-02, 4.09816876e-02, 3.49183381e-02, 2.46499553e-02,
       2.38123201e-02, 5.00545651e-03, 6.05628686e-03, 1.55885704e-02,
       1.41329300e-02, 7.70183187e-03, 3.02058714e-03, -4.44655586e-03,
       -1.08333528e-02, -3.72957881e-03, -5.08645363e-03, 1.72536597e-02,
       1.73715465e-02, -2.54828371e-02, -2.88711060e-02, -1.22908112e-02,
       6.42940728e-03, 3.08190305e-02, 8.93753022e-03, -2.60667596e-02,
       -1.41334133e-02, -1.97616182e-02, 2.39612684e-02, 3.96128036e-02,
       2.58548707e-02, 1.18000265e-02, 8.17009434e-03, 2.98209698e-03,
       -3.59789265e-04, 2.41304915e-02, 1.99679844e-02, -1.24206143e-02,
       -6.34720922e-03, 2.45843595e-03, 2.00364739e-02, 3.02830525e-02,
       -4.58044466e-03, -2.82028690e-02, -7.80110573e-03,
       -1.42536527e-02, -5.72035387e-02, -4.13774215e-02,
       -1.67517457e-02, 1.25250807e-02, 6.22024797e-02, 1.69571396e-02,
       -4.02715281e-02, -3.59822400e-02, -4.36518602e-02,
       -1.56181585e-02, -1.42503539e-02, -2.25333180e-02, 7.20932730e-04,
       8.25571194e-02, 3.38588841e-02, -8.24047159e-03, -8.02732445e-03,
       -6.77659828e-03, -4.46631461e-02, -4.40763682e-02,
       -1.19088162e-02, 3.00888065e-02, 5.84606268e-02, 4.81907651e-03,
       -3.24678868e-02, -2.36526653e-02, -2.72120852e-02,
       -1.73863545e-02, -4.02815416e-02, -1.32527482e-02, 2.04891376e-02,
       7.96430558e-02, 2.87108310e-02, -9.07518063e-03, -9.22146905e-03,
       -5.45859430e-03, -2.56528053e-03, -2.65234313e-03,
       -2.94774435e-02, -3.84461135e-02, 2.09422503e-02, 8.92685261e-03,
       -6.76316791e-04, -7.75215565e-04, -3.88350396e-04,
       -3.99590097e-03, 1.57125946e-02, 1.03967311e-02, -3.51954103e-02,
       -5.66164905e-04, -6.59507886e-03, -3.93809704e-03,
       -3.26606771e-03, -5.03318571e-03, -6.81829080e-03,
       -6.69989269e-03, 8.37259274e-03, -2.79255453e-02, 2.83856653e-02,
       6.99085742e-03, -1.15791149e-03, -3.85627092e-04, -1.26309635e-03,
       -7.17757037e-03, 3.29039656e-02, 1.61877032e-02, -2.80064717e-02,
       -1.40032184e-03, -6.73672277e-03, -3.97294667e-03,
       -2.53216666e-03, -4.49617952e-03, -2.67692097e-03, 8.88225215e-04,
       -2.10558623e-03, -3.90017638e-03, -8.10282212e-03,
       -2.88364608e-02, 5.64870145e-03, 3.11418157e-02, -4.58978955e-03,
       -3.71053978e-03, 6.34730270e-04, 4.16535186e-03, 7.59879965e-03,
       1.33793801e-02, -1.54087972e-02, 2.78933998e-03, -4.93962364e-03,
       -1.01742204e-02, -1.18026761e-02, -3.85555392e-03,
       -4.39681951e-03, -7.43379025e-03, -1.27859609e-02,
       -1.64663494e-02, -2.96210783e-04, 8.10442120e-03, -1.51893320e-02,
       -9.08288360e-03, -1.24104589e-03, 1.64146279e-03, -2.57084309e-03,
       -6.00213697e-03, -1.20047368e-02, 8.68798513e-03, 1.28623145e-02,
       -1.71273258e-02, 7.91662559e-03, 7.81421456e-03, 1.59240309e-02,
       2.17994098e-02, 3.54870148e-02, 1.69208571e-02, -1.10558700e-02,
       -3.10433228e-02, -1.49365822e-02, 2.14058179e-02, 2.53644474e-02,
       2.90972460e-02, 2.41941307e-02, 2.85633001e-02, 2.79060248e-02,
       2.12543476e-02, -2.73205508e-02, -3.07719279e-02, 1.22160083e-02,
       3.90858576e-03, 4.31645615e-03, 2.76990398e-03, 3.27123352e-03,
       1.82915793e-03, 6.22528233e-03, -5.99332806e-03, -1.11384029e-02,
       3.48176584e-02, 1.93402339e-02, 8.30745138e-03, 4.96592466e-03,
       3.39140836e-03, 7.42926775e-03, 2.08345614e-02, -1.54308146e-02,
       -1.60753652e-02, 5.17644500e-03, 2.00238004e-02, 1.61367133e-02,
       8.16201977e-03, 6.55682012e-03, 6.30968297e-03, 1.22028869e-02,
       2.75847726e-02, -1.68356318e-02, -1.07814353e-02, -1.42782591e-02,
       1.02350721e-04, 1.13971690e-02, 1.26413805e-02, -5.95790148e-03,
       -1.23867560e-02, 5.52947074e-03, -4.42824652e-03, 1.09755667e-02,
       1.46157872e-02, 3.85532854e-03, 1.42382609e-03, 1.15988648e-03,
       2.37949030e-03, 8.76952615e-03, 1.00662038e-02, -1.39466366e-02,
       3.19532258e-03, -1.36829792e-02, 5.67898736e-04, 9.63833649e-04,
       2.21684109e-03, -1.05930062e-03, -1.34496100e-03, 1.27755161e-02,
       1.80716475e-03, -2.26542763e-02, -2.95857023e-02, -3.57007235e-03,
       2.28542443e-02, 3.83118764e-02, 8.86479625e-04, -9.50508006e-03,
       -9.71922744e-03, -7.69357476e-03, -1.32207992e-02,
       -2.52278447e-02, 6.23607356e-03, 2.49968711e-02, 4.26766686e-02,
       4.12621163e-03, -4.48758481e-03, -4.63557662e-03, -3.12594092e-03,
       3.16686317e-04, -1.30278971e-02, 8.02976638e-03, 5.10001462e-03,
       6.34855218e-03, 9.53042239e-04, -1.74278754e-03, -4.10737656e-03,
       1.55383386e-02, 4.40391852e-03, -6.04895921e-03, 1.31758209e-02,
       6.99442159e-03, 3.49185849e-03, -1.09902630e-03, -4.61595878e-03,
       -7.96648208e-03, 7.02594523e-04, -1.16201043e-02, -1.25347367e-02,
       1.46936970e-02, -4.17455332e-03, 1.04384115e-02, -9.01737716e-04,
       -2.66022049e-03, -1.51363015e-03, -2.02945923e-03,
       -1.17234411e-02, 5.99441072e-03, 1.39747923e-02, -3.14988196e-02,
       -1.14263473e-02, -7.47484947e-03, -4.64501232e-03,
       -2.76160054e-03, -3.07814847e-03, -1.11707002e-02, 3.17979581e-03,
       2.03457549e-02, -8.34691245e-03, -7.15794414e-03, -4.54435823e-03,
       -6.95716077e-03, -7.13900849e-03, -6.74719317e-03,
       -1.44173279e-02, -1.20451655e-02, 3.79823777e-03, -1.81193370e-02,
       -1.76379476e-02, -1.36902621e-02, -7.14727771e-03,
       -6.11727638e-03, -9.85566620e-03, -1.87018543e-01 ]
