%YAML:1.0
---
model: !!opencv-object-detector-hog
   winSize: [ 48, 48 ]
   blockSize: [ 16, 16 ]
   blockStride: [ 8, 8 ]
   cellSize: [ 8, 8 ]
   nbins: 9
   derivAperture: 1
   winSigma: 4.
   histogramNormType: 0
   L2HysThreshold: 2.0000000000000001e-01
   gammaCorrection: 1
   nlevels: 64
   signedGradient: 0
   SVMDetector: [ -2.14553997e-02, 5.34467511e-02, 1.36508182e-01,
       -4.31628227e-02, -6.40702471e-02, -2.64835320e-02,
       -1.49246100e-02, -2.70587322e-03, -8.49220157e-03,
       -5.28588295e-02, 8.29848275e-02, 1.14211969e-01, -4.31071892e-02,
       -3.18056680e-02, -7.92180467e-03, -1.43633364e-02,
       -2.87778047e-03, -2.52681412e-02, -4.38084193e-02, 5.50599918e-02,
       8.32372978e-02, -2.22358573e-02, -8.89685154e-02, -2.68321391e-02,
       -6.12482036e-05, 7.98832066e-03, -1.01458747e-02, -7.95319378e-02,
       2.27845442e-02, 3.26259583e-02, -8.51952061e-02, -2.58765705e-02,
       -1.43713001e-02, -2.25018263e-02, -1.08319949e-02,
       -2.83714719e-02, 3.67623866e-02, 9.13325995e-02, 7.40886405e-02,
       -4.47586738e-02, -2.29031071e-02, -1.04439594e-02,
       -1.71410870e-02, -2.52880566e-02, -4.10013180e-03, 5.52895218e-02,
       4.82497215e-02, -2.53878552e-02, -3.94122265e-02, -2.25188676e-03,
       -8.52987170e-03, -1.21608730e-02, -2.71326136e-02, 4.13367972e-02,
       -1.99851282e-02, 2.62940321e-02, 8.19989741e-02, -4.83969040e-02,
       -1.10070053e-02, -2.23236401e-02, -2.54292767e-02, 9.75902483e-04,
       4.66511492e-03, 2.82702083e-03, -6.02669036e-03, -5.47985397e-02,
       -3.13932486e-02, -9.11598443e-04, -2.49449760e-02,
       -2.03420669e-02, 3.91845359e-03, -1.03301946e-02, 3.71420644e-02,
       1.07002947e-02, -3.51085402e-02, -1.44001283e-02, 3.54237342e-03,
       -6.35224488e-03, -2.06957180e-02, -4.65226695e-02, 2.67924573e-02,
       2.99533047e-02, -1.72989555e-02, -2.40295138e-02, -1.54937105e-02,
       -5.06007485e-03, -1.52392071e-02, -1.96928531e-02, 1.28990812e-02,
       3.16042639e-02, 1.11739533e-02, -1.10891564e-02, -2.37201210e-02,
       -1.57217626e-02, 9.44717415e-03, -1.00108085e-03, -5.07372245e-03,
       7.07946625e-03, 3.97887826e-03, 4.26205806e-03, 2.00227747e-04,
       -1.43602034e-02, -2.45933104e-02, 7.94586912e-03, -4.87305969e-03,
       -1.16124181e-02, -1.99425593e-03, 1.59374680e-02, -1.55894710e-02,
       -1.90819129e-02, -1.47000561e-02, -9.92141943e-03,
       -5.08828415e-03, -1.11772679e-02, -1.46559086e-02, 5.07537909e-02,
       4.45193350e-02, -4.00167778e-02, -2.22947486e-02, -2.06357543e-03,
       -1.29218344e-02, -2.00360939e-02, -6.96260482e-02,
       -1.80105027e-03, 3.36490422e-02, -2.51840875e-02, 2.37791352e-02,
       7.45700207e-03, -3.79808946e-03, -1.44126490e-02, 1.62398871e-02,
       -7.38698430e-03, -6.10176800e-03, 3.64556424e-02, 3.38354371e-02,
       -2.38320082e-02, -1.50090959e-02, -7.99315795e-03,
       -1.34010846e-02, 2.39301268e-02, -5.85764125e-02, 4.27861884e-02,
       3.91811579e-02, -3.90114859e-02, -4.55500819e-02, -1.42509257e-02,
       1.03904204e-02, -8.43059644e-03, -1.40235284e-02, -4.94096987e-02,
       4.95547764e-02, 5.56910485e-02, -4.53811474e-02, -2.57863514e-02,
       -1.82389803e-02, 9.75395925e-03, -4.26847581e-03, -9.46118869e-03,
       -1.28669720e-02, 5.19155450e-02, 3.74313444e-02, -3.98174897e-02,
       -1.71778928e-02, -1.76270201e-03, 1.21529661e-02, -2.02156585e-02,
       -9.99053754e-03, -6.69130236e-02, 5.01325540e-02, 6.79472685e-02,
       -5.59210628e-02, -1.87306497e-02, -1.65274944e-02, 1.01703787e-02,
       2.06343201e-03, -1.67137571e-02, 3.74530349e-03, 7.77641162e-02,
       5.90696521e-02, -5.09547703e-02, -4.50483337e-02, 3.83660570e-02,
       1.25659212e-01, 4.15878892e-02, -8.70089009e-02, -2.90275440e-02,
       -1.33285029e-02, -1.41893458e-02, -2.51514111e-02,
       -4.17678840e-02, 1.98936686e-02, 8.23401883e-02, -1.97478235e-02,
       -3.84972803e-02, -1.66303162e-02, -2.28831768e-02,
       -2.25679856e-02, -2.89608780e-02, -3.59892920e-02,
       -3.89304981e-02, 1.12850755e-01, 4.88372929e-02, 3.34142037e-02,
       -5.47180176e-02, -3.47774811e-02, -2.11339220e-02,
       -3.13527733e-02, -3.12398896e-02, -3.91847938e-02, 1.64673850e-02,
       1.59963127e-02, -3.52784395e-02, -2.77227722e-02, -1.99935343e-02,
       -3.30904648e-02, -4.57297713e-02, -3.38754021e-02,
       -3.58596705e-02, -4.09790874e-03, -9.04872790e-02,
       -1.55324228e-02, -1.70046799e-02, -1.18171033e-02, 9.04831290e-03,
       -1.94197858e-03, -2.87924912e-02, -3.60997096e-02,
       -4.60345261e-02, -3.33666056e-02, -7.55757792e-03,
       -2.25266460e-02, 7.04706647e-04, 2.17897184e-02, -1.23498542e-03,
       1.13413883e-02, 1.25784073e-02, -2.16925200e-02, -4.36724201e-02,
       -3.15648317e-02, -1.48668485e-02, -3.01753613e-03, 4.23231069e-03,
       -5.01909410e-04, 2.48769652e-02, 4.28832769e-02, 2.80180965e-02,
       1.85303967e-02, -2.56162765e-03, 2.88294628e-02, 6.02578819e-02,
       8.69554803e-02, 7.21503869e-02, -3.53752822e-02, -3.48350443e-02,
       -2.45422293e-02, -2.63252482e-02, -7.29789678e-03,
       -3.28576332e-03, 5.72695304e-03, 1.58725511e-02, -1.31559270e-02,
       -2.06531063e-02, -1.71597172e-02, -2.54457369e-02,
       -1.96738336e-02, 1.31243281e-02, 2.82123629e-02, -1.78357195e-02,
       -4.83889021e-02, -3.72123569e-02, -4.76053394e-02, 8.35486280e-04,
       2.48676408e-02, -1.76391602e-02, -3.04640625e-02, 9.56932828e-03,
       1.64996833e-02, 3.95938493e-02, 2.15889234e-03, -3.53658013e-02,
       -8.73486884e-03, 1.63216777e-02, -7.09945057e-03, 7.29072606e-03,
       -4.65376955e-03, -2.47843266e-02, -3.70887085e-03, 2.98258290e-03,
       4.95583862e-02, 3.03632785e-02, 1.29385740e-02, -7.93588534e-03,
       1.42487027e-02, 1.43038146e-02, -2.40393765e-02, -2.44379751e-02,
       1.45425946e-02, -2.30815969e-02, -1.65544078e-02, -2.25757826e-02,
       -2.48266086e-02, 3.16003747e-02, -2.12991592e-02, 1.30605092e-02,
       -5.29275602e-03, -4.94689159e-02, 3.11489217e-02, 1.30246114e-02,
       -7.87859969e-03, -1.20031592e-02, 2.93749366e-02, 9.17785615e-03,
       -1.05700018e-02, 1.04410741e-02, 4.78390716e-02, -2.32902020e-02,
       -2.60580089e-02, -3.67979147e-02, -2.64878888e-02, 3.64077352e-02,
       -4.59048990e-03, -3.25729549e-02, -5.30625209e-02,
       -4.07363586e-02, -3.16506550e-02, -5.34588890e-03,
       -2.14062585e-03, -3.26475985e-02, -1.46334600e-02, 5.03992010e-03,
       7.21958354e-02, 8.53434484e-03, -5.11489287e-02, -2.74790116e-02,
       -1.26849841e-02, -1.05068146e-03, -1.51681285e-02,
       -6.90829894e-03, 4.02536467e-02, 8.19533765e-02, 1.36450706e-02,
       -5.40293604e-02, -1.80973075e-02, -1.49926927e-03, 2.05326290e-03,
       -2.03126501e-02, 3.54405567e-02, 3.61703038e-02, 2.45295465e-02,
       -3.05779614e-02, -2.68364418e-02, 2.60640663e-04, 7.35613285e-04,
       8.81843641e-03, 3.69341066e-03, 6.83717281e-02, 2.90622432e-02,
       2.13833842e-02, -5.60499765e-02, -2.07069945e-02, -4.62049320e-02,
       -4.35331799e-02, -3.80995199e-02, 6.88748509e-02, 7.66716301e-02,
       6.46672072e-03, -3.38863097e-02, -9.86624043e-03, -3.89971659e-02,
       -3.51101644e-02, -3.19127776e-02, -1.18496958e-02, 3.39998901e-02,
       1.84580944e-02, -3.26288007e-02, -1.75834112e-02, -1.78534184e-02,
       -4.51188423e-02, -4.41462472e-02, -3.10024265e-02,
       -2.76489872e-02, 3.77790332e-02, 6.31886646e-02, 1.33220071e-03,
       -2.54273862e-02, -1.96212810e-02, -2.86330655e-02,
       -3.01676504e-02, -2.05286350e-02, -1.49463704e-02,
       -1.33717814e-02, 5.74115373e-04, -1.73280258e-02, -3.12666222e-02,
       -1.14820357e-02, -2.39629336e-02, -1.64112705e-03, 5.11227176e-03,
       1.69487987e-02, -7.47925742e-03, -3.66905332e-02, -3.33181694e-02,
       7.82024767e-03, 1.27783772e-02, -5.34317875e-03, 1.83176566e-02,
       3.63608599e-02, 3.43937576e-02, 4.95179333e-02, -4.05336777e-03,
       4.32034582e-02, 7.62144178e-02, 8.12701955e-02, 6.72730803e-02,
       -2.27482915e-02, -3.04560326e-02, -2.92835589e-02,
       -1.44040128e-02, -7.21330419e-02, -9.07014012e-02,
       -2.60707568e-02, -2.50455132e-03, -2.22223941e-02, 9.22459271e-03,
       6.55489368e-03, 1.26860430e-02, 1.58057325e-02, 6.72190590e-03,
       6.50966540e-03, 3.26935574e-02, 3.00081633e-02, -7.99311604e-03,
       -3.87542173e-02, 1.87533945e-02, 2.97451224e-02, 7.82079250e-03,
       -3.62821929e-02, 1.85528658e-02, 3.75690013e-02, 5.66067360e-02,
       2.99074370e-02, -1.82312168e-02, -6.02730084e-03, 2.12760195e-02,
       -1.07462779e-02, -4.43126373e-02, -2.63273027e-02,
       -2.05946285e-02, 3.70304915e-03, 1.04516558e-02, -2.19460651e-02,
       -2.22607609e-03, 1.37134362e-02, 2.88479552e-02, -1.41704045e-02,
       4.80943872e-03, 1.68626271e-02, 3.20943221e-02, 4.29935241e-03,
       -3.09564802e-03, -1.85593273e-02, -3.38107795e-02,
       -2.80252402e-03, -2.13611275e-02, -1.03693898e-03, 1.38127571e-02,
       3.45642008e-02, 2.60904189e-02, 5.21677695e-02, -2.50704616e-04,
       -2.34634504e-02, -1.34888040e-02, 3.63702234e-03, -8.75436701e-03,
       7.90050440e-03, 2.83794459e-02, 6.20360561e-02, -6.94373110e-03,
       -1.05061783e-02, -3.06384955e-02, -1.05647314e-02, 9.97025799e-03,
       -2.26160083e-02, -4.43924777e-02, -2.58487184e-02,
       -3.25512290e-02, 6.70704693e-02, 1.57766696e-02, -3.94417010e-02,
       -1.99715942e-02, -1.38298161e-02, 2.90337426e-04, 3.30336168e-02,
       5.12410849e-02, 5.68919182e-02, 1.63960680e-02, -2.04312410e-02,
       -5.23658581e-02, -4.23590653e-02, -3.31827700e-02,
       -4.08348180e-02, -2.52235476e-02, -2.30411477e-02,
       -1.77566521e-02, -1.26197655e-02, -1.18789030e-04,
       -3.93639458e-03, -4.35770676e-03, 5.13076968e-02, -5.59564028e-03,
       -2.41636839e-02, -2.41571497e-02, -2.65316162e-02,
       -1.22094732e-02, 1.78758067e-03, -2.02184869e-03, 4.07283343e-02,
       5.89646623e-02, 2.32052039e-02, -5.62921278e-02, -3.70817259e-02,
       -3.84510681e-02, -1.35716014e-02, -5.72563941e-03,
       -2.96361418e-03, 3.74700651e-02, 4.58490551e-02, -4.63449880e-02,
       -2.57338472e-02, -2.79530473e-02, -2.73719430e-02,
       -2.52884906e-02, -2.05444712e-02, -1.58880539e-02, 5.57812005e-02,
       4.28761169e-02, -1.70122031e-02, -3.34945619e-02, -3.30342017e-02,
       -3.83476689e-02, -3.32616158e-02, -1.82570033e-02,
       -2.81374492e-02, -4.04063117e-04, 2.10800767e-02, 4.54792567e-03,
       6.51121810e-02, -1.00101298e-02, -3.58659402e-02, -1.97645873e-02,
       -8.80590081e-03, -1.20697655e-02, -1.56100253e-02,
       -6.69058263e-02, -1.77455060e-02, 1.18414247e-02, -2.23452598e-02,
       -2.70836093e-02, -3.39491703e-02, -1.63898412e-02,
       -1.91221237e-02, -4.93548391e-03, -1.14069134e-02, 2.22707950e-02,
       9.28636044e-02, 2.62141731e-02, -7.21601471e-02, -1.33239608e-02,
       -1.73526537e-03, 2.92808725e-03, 1.40862381e-02, -1.13648465e-02,
       -1.92578174e-02, 4.37142998e-02, 2.23313067e-02, -5.81672117e-02,
       1.22455154e-02, 2.35351312e-04, -9.55391675e-03, -1.37212221e-04,
       -4.21803482e-02, -7.54405484e-02, -8.00434779e-03,
       -1.72992554e-02, -3.37951467e-03, 3.15887071e-02, 2.57691592e-02,
       9.28183645e-03, -3.63732222e-03, -6.73624082e-03, -6.93069259e-03,
       -1.06176240e-02, -1.76732242e-02, -1.69074666e-02, 5.21930773e-03,
       2.27084607e-02, 2.71329656e-02, 3.46961208e-02, -5.44672366e-03,
       -2.01852508e-02, 6.00372553e-02, 2.13644058e-02, -1.53702786e-02,
       6.65960787e-03, 2.81714648e-02, 1.46762971e-02, 1.31874131e-02,
       -1.60858687e-02, -1.10444706e-02, -2.66149337e-03, 1.99967865e-02,
       -2.63519529e-02, -1.42459925e-02, 7.43341446e-03, -4.59500030e-03,
       2.53250613e-03, -2.13463511e-02, 6.75262127e-04, 1.81701500e-02,
       -2.71172076e-03, -3.46664600e-02, 2.14892570e-02, 2.26704180e-02,
       -2.72562765e-02, 1.70612650e-03, 1.19307227e-02, 3.70966010e-02,
       4.80395444e-02, 5.42297885e-02, 3.41377929e-02, -2.09998358e-02,
       1.27897076e-02, -6.04242180e-03, -1.60621703e-02, -4.18661982e-02,
       -2.09495835e-02, 7.83091411e-03, -5.77158034e-02, -7.20535517e-02,
       1.17641045e-02, 2.34497618e-03, -2.88231894e-02, -3.52904317e-03,
       3.11687123e-02, 2.57821865e-02, 4.27881405e-02, 3.20738778e-02,
       -9.94235277e-03, 4.61942255e-02, 2.30399575e-02, -4.14514951e-02,
       -1.83517337e-02, 1.82597432e-02, 3.92987989e-02, 5.75697124e-02,
       4.08359095e-02, 2.37272903e-02, -3.53766903e-02, -4.28986251e-02,
       -5.68521582e-02, -5.79628572e-02, -2.28923350e-03,
       -9.58448183e-03, -1.00032091e-02, -3.67120840e-02,
       -4.62347493e-02, 7.16914935e-03, 2.90447613e-03, -4.41040695e-02,
       -8.74898862e-03, 4.76252288e-02, 4.96059619e-02, 5.78243360e-02,
       3.41518335e-02, -1.41863816e-03, -3.11648510e-02, -4.04089503e-02,
       -8.34226422e-03, -5.19835055e-02, 2.43522655e-02, 1.89600214e-02,
       4.95712925e-03, -2.38768440e-02, -4.52014990e-02, -2.23344266e-02,
       -1.79076623e-02, 3.16459164e-02, 1.95496231e-02, -4.03047502e-02,
       -3.17231379e-02, -2.02860963e-02, -2.75117736e-02,
       -3.09785549e-02, -2.57527810e-02, -3.22725251e-02, 6.00027405e-02,
       5.31494245e-02, 2.81910636e-02, -3.87657024e-02, -1.98337976e-02,
       -2.92872377e-02, -2.75051724e-02, -2.82665081e-02, 2.45251413e-02,
       6.66128471e-02, -1.69166978e-02, -4.25382815e-02, -1.80649441e-02,
       -6.33465638e-03, -1.66089535e-02, -1.59281399e-02,
       -1.64755993e-02, 3.64233479e-02, 9.18478519e-02, 3.28300484e-02,
       -3.96719351e-02, -3.56560722e-02, 9.36201192e-04, -8.41537490e-03,
       -5.32854302e-03, -1.09565184e-02, -4.86596115e-03,
       -1.69892050e-02, 5.68132033e-04, -2.32604388e-02, -3.63305472e-02,
       9.61505324e-02, 5.17252237e-02, -4.64810394e-02, -1.09237200e-02,
       -4.34325729e-03, -1.04375295e-02, -1.07672333e-03,
       -1.13680046e-02, -5.69068156e-02, 2.74427980e-02, 4.08351906e-02,
       -4.82943244e-02, -1.61849465e-02, -9.60246753e-03,
       -3.63974683e-02, -2.31622159e-02, -3.60616855e-02,
       -5.72112538e-02, 6.51306137e-02, 3.78270037e-02, -1.74837206e-02,
       -3.20365392e-02, -2.92994045e-02, -3.47229689e-02,
       -2.70927921e-02, -4.31784615e-02, -4.80919629e-02, 8.12258497e-02,
       1.02229126e-01, -3.63878980e-02, -1.20579405e-02, 9.88943223e-03,
       1.41531192e-02, 1.37954941e-02, 1.49317430e-02, -4.05877493e-02,
       4.48987819e-02, 1.32570872e-02, -8.34305584e-03, -5.16832322e-02,
       2.59903725e-03, 1.76013820e-02, 1.88054163e-02, 2.49197874e-02,
       6.30358816e-04, 5.52627258e-03, 3.72807533e-02, -1.56051265e-02,
       -4.14891168e-02, -3.09256651e-02, -2.37055998e-02,
       -2.26325132e-02, -2.42729336e-02, -4.30231951e-02, 4.73076887e-02,
       6.65155351e-02, -4.29642852e-03, -2.51063295e-02, -3.49615254e-02,
       -1.79298762e-02, -7.66018173e-03, -7.44919199e-03,
       -2.04040967e-02, 5.81530575e-03, 5.17505966e-02, 8.66516214e-03,
       -7.20961299e-03, -2.73392014e-02, -4.85137664e-03,
       -4.50754631e-03, -6.71886420e-03, -6.34334888e-03, 2.28600316e-02,
       -5.23366127e-03, -2.12507956e-02, 5.07940389e-02, 8.14132765e-03,
       -4.00059521e-02, -2.39575356e-02, 1.14627266e-02, 8.17296933e-03,
       3.87239493e-02, 7.77211320e-03, 1.26217324e-02, 2.70436034e-02,
       -6.89940825e-02, -3.48175280e-02, -1.59955192e-02,
       -2.19312869e-02, -2.23825127e-02, -9.25305765e-03, 2.44780201e-02,
       2.66042780e-02, 3.13891545e-02, -9.30199772e-03, -7.45807514e-02,
       -3.38258706e-02, -3.87190841e-02, -1.93434451e-02,
       -2.00494584e-02, -4.65366878e-02, 2.85754520e-02, 4.81110290e-02,
       4.52528261e-02, -2.68983133e-02, -2.81783510e-02, 8.45500454e-03,
       1.08053104e-03, 2.46415418e-02, 1.15606713e-03, -1.87247451e-02,
       6.84349332e-03, 4.34717201e-02, 5.78052998e-02, -2.39090621e-02,
       7.13599054e-03, 1.69239205e-03, 5.22759045e-04, -1.48114497e-02,
       -3.72353904e-02, 5.06238416e-02, 6.30595461e-02, -3.92978340e-02,
       -4.59995270e-02, -4.83012125e-02, -2.26298254e-02,
       -1.05933379e-02, -4.10769582e-02, -2.61443723e-02,
       -1.96620054e-03, 7.03663751e-02, 3.87848802e-02, -3.67969349e-02,
       -6.42264485e-02, -3.26787680e-02, -2.23204531e-02,
       -3.73940878e-02, -6.95041269e-02, -1.86865442e-02, 5.26044741e-02,
       8.08762610e-02, -4.11565863e-02, -4.31213155e-02, -2.19841325e-03,
       8.35921895e-03, 3.24967579e-04, -1.44322645e-02, -7.20768096e-03,
       5.09944186e-02, 1.05499461e-01, -1.49724940e-02, -3.93004827e-02,
       7.26282669e-05, 1.52691649e-02, 7.58481724e-03, 1.75297071e-04,
       -2.41902079e-02, 8.34840536e-02, 8.22726190e-02, -2.20962446e-02,
       -4.74487804e-02, -6.70226803e-03, 1.09289144e-03, -1.11325337e-02,
       -4.63394895e-02, -2.78655440e-02, 2.20007058e-02, 4.80336174e-02,
       -4.38117050e-02, -1.64708793e-02, 1.68851577e-02, 1.00480421e-02,
       2.25723768e-03, -3.70063484e-02, -9.10636723e-01 ]
